digraph Tree {
0 [label="X[42] <= 7.5000\nentropy = 3.32177535384\nsamples = 1797", shape="box"] ;
1 [label="X[26] <= 8.5000\nentropy = 2.89212787614\nsamples = 970", shape="box"] ;
0 -> 1 ;
2 [label="entropy = 2.4251\nsamples = 496\nvalue = [   4.   57.  112.  163.    0.    9.    1.   88.    6.   56.]", shape="box"] ;
1 -> 2 ;
3 [label="entropy = 2.4855\nsamples = 474\nvalue = [   0.   62.    9.    8.   47.  161.    0.   31.   34.  122.]", shape="box"] ;
1 -> 3 ;
4 [label="X[36] <= 0.5000\nentropy = 2.8216701513\nsamples = 827", shape="box"] ;
0 -> 4 ;
5 [label="entropy = 0.7733\nsamples = 192\nvalue = [ 170.    0.    3.    0.    6.    5.    5.    0.    3.    0.]", shape="box"] ;
4 -> 5 ;
6 [label="entropy = 2.6514\nsamples = 635\nvalue = [   4.   63.   53.   12.  128.    7.  175.   60.  131.    2.]", shape="box"] ;
4 -> 6 ;
}